<?xml version="1.0"?>
<opencv_storage>
<cascade>
  <stageType>BOOST</stageType>
  <featureType>HAAR</featureType>
  <height>24</height>
  <width>36</width>
  <stageParams>
    <boostType>GAB</boostType>
    <minHitRate>9.9500000476837158e-01</minHitRate>
    <maxFalseAlarm>5.0000000000000000e-01</maxFalseAlarm>
    <weightTrimRate>9.4999998807907104e-01</weightTrimRate>
    <maxDepth>1</maxDepth>
    <maxWeakCount>100</maxWeakCount></stageParams>
  <featureParams>
    <maxCatCount>0</maxCatCount>
    <featSize>1</featSize>
    <mode>BASIC</mode></featureParams>
  <stageNum>15</stageNum>
  <stages>
    <!-- stage 0 -->
    <_>
      <maxWeakCount>6</maxWeakCount>
      <stageThreshold>-9.2593139410018921e-01</stageThreshold>
      <weakClassifiers>
        <_>
          <internalNodes>
            0 -1 53 -4.7466352581977844e-02</internalNodes>
          <leafValues>
            7.1584701538085938e-01 -3.8596490025520325e-01</leafValues></_>
        <_>
          <internalNodes>
            0 -1 95 1.3780656736344099e-03</internalNodes>
          <leafValues>
            4.4235536456108093e-01 -7.1269047260284424e-01</leafValues></_>
        <_>
          <internalNodes>
            0 -1 96 -2.3900445085018873e-03</internalNodes>
          <leafValues>
            -7.5402396917343140e-01 3.9781782031059265e-01</leafValues></_>
        <_>
          <internalNodes>
            0 -1 19 2.3663716390728951e-02</internalNodes>
          <leafValues>
            2.9414165019989014e-01 -8.8858616352081299e-01</leafValues></_>
        <_>
          <internalNodes>
            0 -1 76 -4.1084391996264458e-03</internalNodes>
          <leafValues>
            -7.7793455123901367e-01 3.1215727329254150e-01</leafValues></_>
        <_>
          <internalNodes>
            0 -1 82 2.4075359106063843e-02</internalNodes>
          <leafValues>
            2.5869908928871155e-01 -9.1046458482742310e-01</leafValues></_></weakClassifiers></_>
    <!-- stage 1 -->
    <_>
      <maxWeakCount>4</maxWeakCount>
      <stageThreshold>-1.7280328273773193e-01</stageThreshold>
      <weakClassifiers>
        <_>
          <internalNodes>
            0 -1 79 -1.4221786521375179e-02</internalNodes>
          <leafValues>
            -7.5000000000000000e-01 5.3526973724365234e-01</leafValues></_>
        <_>
          <internalNodes>
            0 -1 44 -3.7901233881711960e-02</internalNodes>
          <leafValues>
            5.8625030517578125e-01 -5.8487081527709961e-01</leafValues></_>
        <_>
          <internalNodes>
            0 -1 8 -1.5695374459028244e-02</internalNodes>
          <leafValues>
            -6.9147360324859619e-01 4.4664084911346436e-01</leafValues></_>
        <_>
          <internalNodes>
            0 -1 55 2.2446103394031525e-03</internalNodes>
          <leafValues>
            -3.9846089482307434e-01 7.1542668342590332e-01</leafValues></_></weakClassifiers></_>
    <!-- stage 2 -->
    <_>
      <maxWeakCount>5</maxWeakCount>
      <stageThreshold>-2.6216393709182739e-01</stageThreshold>
      <weakClassifiers>
        <_>
          <internalNodes>
            0 -1 16 1.1076538823544979e-02</internalNodes>
          <leafValues>
            5.6034481525421143e-01 -6.6153848171234131e-01</leafValues></_>
        <_>
          <internalNodes>
            0 -1 2 1.3698186725378036e-02</internalNodes>
          <leafValues>
            -5.3932374715805054e-01 5.4354143142700195e-01</leafValues></_>
        <_>
          <internalNodes>
            0 -1 43 2.4025077000260353e-03</internalNodes>
          <leafValues>
            3.7741407752037048e-01 -7.6274311542510986e-01</leafValues></_>
        <_>
          <internalNodes>
            0 -1 41 -5.8870962820947170e-03</internalNodes>
          <leafValues>
            -7.9990643262863159e-01 3.9460617303848267e-01</leafValues></_>
        <_>
          <internalNodes>
            0 -1 74 -8.5530821233987808e-03</internalNodes>
          <leafValues>
            -8.4931272268295288e-01 2.7832543849945068e-01</leafValues></_></weakClassifiers></_>
    <!-- stage 3 -->
    <_>
      <maxWeakCount>6</maxWeakCount>
      <stageThreshold>-6.6328424215316772e-01</stageThreshold>
      <weakClassifiers>
        <_>
          <internalNodes>
            0 -1 62 -3.1247993931174278e-02</internalNodes>
          <leafValues>
            -7.1428573131561279e-01 5.6410259008407593e-01</leafValues></_>
        <_>
          <internalNodes>
            0 -1 49 -3.2009086571633816e-03</internalNodes>
          <leafValues>
            8.0391484498977661e-01 -3.7791010737419128e-01</leafValues></_>
        <_>
          <internalNodes>
            0 -1 1 1.1644430458545685e-02</internalNodes>
          <leafValues>
            4.2340108752250671e-01 -7.4771106243133545e-01</leafValues></_>
        <_>
          <internalNodes>
            0 -1 15 -5.4634269326925278e-03</internalNodes>
          <leafValues>
            -8.8229727745056152e-01 3.9485028386116028e-01</leafValues></_>
        <_>
          <internalNodes>
            0 -1 34 6.2723327428102493e-03</internalNodes>
          <leafValues>
            2.8650018572807312e-01 -7.6592874526977539e-01</leafValues></_>
        <_>
          <internalNodes>
            0 -1 9 2.3542330600321293e-03</internalNodes>
          <leafValues>
            3.7534824013710022e-01 -7.7127236127853394e-01</leafValues></_></weakClassifiers></_>
    <!-- stage 4 -->
    <_>
      <maxWeakCount>7</maxWeakCount>
      <stageThreshold>-9.1516208648681641e-01</stageThreshold>
      <weakClassifiers>
        <_>
          <internalNodes>
            0 -1 17 -1.4433380216360092e-02</internalNodes>
          <leafValues>
            -6.2500000000000000e-01 5.4506438970565796e-01</leafValues></_>
        <_>
          <internalNodes>
            0 -1 60 -3.4611183218657970e-03</internalNodes>
          <leafValues>
            9.4551301002502441e-01 -2.5758460164070129e-01</leafValues></_>
        <_>
          <internalNodes>
            0 -1 88 -3.8591800257563591e-03</internalNodes>
          <leafValues>
            -8.5502874851226807e-01 3.5428699851036072e-01</leafValues></_>
        <_>
          <internalNodes>
            0 -1 91 2.6251897215843201e-03</internalNodes>
          <leafValues>
            3.2670688629150391e-01 -7.3971325159072876e-01</leafValues></_>
        <_>
          <internalNodes>
            0 -1 99 -1.2371144257485867e-03</internalNodes>
          <leafValues>
            -7.6796972751617432e-01 3.0277717113494873e-01</leafValues></_>
        <_>
          <internalNodes>
            0 -1 11 -2.1113466471433640e-02</internalNodes>
          <leafValues>
            -8.0194878578186035e-01 2.8383022546768188e-01</leafValues></_>
        <_>
          <internalNodes>
            0 -1 55 2.6250369846820831e-03</internalNodes>
          <leafValues>
            -3.3307608962059021e-01 8.5770601034164429e-01</leafValues></_></weakClassifiers></_>
    <!-- stage 5 -->
    <_>
      <maxWeakCount>6</maxWeakCount>
      <stageThreshold>-3.7939694523811340e-01</stageThreshold>
      <weakClassifiers>
        <_>
          <internalNodes>
            0 -1 61 1.6105309128761292e-02</internalNodes>
          <leafValues>
            5.0597608089447021e-01 -8.6956518888473511e-01</leafValues></_>
        <_>
          <internalNodes>
            0 -1 66 -1.5181072056293488e-02</internalNodes>
          <leafValues>
            -8.1189638376235962e-01 3.3539700508117676e-01</leafValues></_>
        <_>
          <internalNodes>
            0 -1 86 -3.1533741857856512e-03</internalNodes>
          <leafValues>
            -8.9397865533828735e-01 2.7768710255622864e-01</leafValues></_>
        <_>
          <internalNodes>
            0 -1 42 1.5265114605426788e-02</internalNodes>
          <leafValues>
            3.3188772201538086e-01 -6.9600129127502441e-01</leafValues></_>
        <_>
          <internalNodes>
            0 -1 78 4.3836943805217743e-03</internalNodes>
          <leafValues>
            2.7985161542892456e-01 -8.0910271406173706e-01</leafValues></_>
        <_>
          <internalNodes>
            0 -1 30 -5.9271948412060738e-03</internalNodes>
          <leafValues>
            -7.9858821630477905e-01 2.9323384165763855e-01</leafValues></_></weakClassifiers></_>
    <!-- stage 6 -->
    <_>
      <maxWeakCount>7</maxWeakCount>
      <stageThreshold>-5.6505751609802246e-01</stageThreshold>
      <weakClassifiers>
        <_>
          <internalNodes>
            0 -1 32 -6.1881290748715401e-03</internalNodes>
          <leafValues>
            -5.6250000000000000e-01 5.2789700031280518e-01</leafValues></_>
        <_>
          <internalNodes>
            0 -1 77 -1.3449769467115402e-02</internalNodes>
          <leafValues>
            -7.7947229146957397e-01 3.0926725268363953e-01</leafValues></_>
        <_>
          <internalNodes>
            0 -1 80 5.0925882533192635e-03</internalNodes>
          <leafValues>
            2.9993844032287598e-01 -7.3860168457031250e-01</leafValues></_>
        <_>
          <internalNodes>
            0 -1 65 -2.7190688997507095e-03</internalNodes>
          <leafValues>
            8.5485488176345825e-01 -2.9087671637535095e-01</leafValues></_>
        <_>
          <internalNodes>
            0 -1 29 4.3878987431526184e-02</internalNodes>
          <leafValues>
            2.6639783382415771e-01 -8.6838501691818237e-01</leafValues></_>
        <_>
          <internalNodes>
            0 -1 93 -3.8920978549867868e-03</internalNodes>
          <leafValues>
            -7.7117931842803955e-01 1.9907380640506744e-01</leafValues></_>
        <_>
          <internalNodes>
            0 -1 27 7.1118131279945374e-02</internalNodes>
          <leafValues>
            2.5052458047866821e-01 -7.8241753578186035e-01</leafValues></_></weakClassifiers></_>
    <!-- stage 7 -->
    <_>
      <maxWeakCount>5</maxWeakCount>
      <stageThreshold>-8.8314419984817505e-01</stageThreshold>
      <weakClassifiers>
        <_>
          <internalNodes>
            0 -1 35 -2.7507059276103973e-02</internalNodes>
          <leafValues>
            -6.3934427499771118e-01 5.3389829397201538e-01</leafValues></_>
        <_>
          <internalNodes>
            0 -1 58 1.9371588714420795e-03</internalNodes>
          <leafValues>
            -3.9228546619415283e-01 6.7311185598373413e-01</leafValues></_>
        <_>
          <internalNodes>
            0 -1 36 9.1470032930374146e-03</internalNodes>
          <leafValues>
            3.2745966315269470e-01 -7.8395748138427734e-01</leafValues></_>
        <_>
          <internalNodes>
            0 -1 83 -8.6164548993110657e-03</internalNodes>
          <leafValues>
            -6.3699901103973389e-01 3.4013822674751282e-01</leafValues></_>
        <_>
          <internalNodes>
            0 -1 4 1.5482245013117790e-02</internalNodes>
          <leafValues>
            2.8784722089767456e-01 -7.1521770954132080e-01</leafValues></_></weakClassifiers></_>
    <!-- stage 8 -->
    <_>
      <maxWeakCount>7</maxWeakCount>
      <stageThreshold>-4.3800526857376099e-01</stageThreshold>
      <weakClassifiers>
        <_>
          <internalNodes>
            0 -1 89 -3.4332100767642260e-03</internalNodes>
          <leafValues>
            -6.6666668653488159e-01 4.7791165113449097e-01</leafValues></_>
        <_>
          <internalNodes>
            0 -1 48 -3.7190139293670654e-02</internalNodes>
          <leafValues>
            8.7625598907470703e-01 -2.4992042779922485e-01</leafValues></_>
        <_>
          <internalNodes>
            0 -1 51 1.1255847290158272e-02</internalNodes>
          <leafValues>
            3.2351183891296387e-01 -5.8527725934982300e-01</leafValues></_>
        <_>
          <internalNodes>
            0 -1 0 9.3914210796356201e-02</internalNodes>
          <leafValues>
            1.7993368208408356e-01 -9.3458241224288940e-01</leafValues></_>
        <_>
          <internalNodes>
            0 -1 12 -1.6672173514962196e-03</internalNodes>
          <leafValues>
            -6.0587596893310547e-01 2.7988272905349731e-01</leafValues></_>
        <_>
          <internalNodes>
            0 -1 24 -1.0344998911023140e-02</internalNodes>
          <leafValues>
            -7.8922110795974731e-01 2.2072364389896393e-01</leafValues></_>
        <_>
          <internalNodes>
            0 -1 81 -6.6602090373635292e-03</internalNodes>
          <leafValues>
            -7.6125931739807129e-01 2.5749546289443970e-01</leafValues></_></weakClassifiers></_>
    <!-- stage 9 -->
    <_>
      <maxWeakCount>7</maxWeakCount>
      <stageThreshold>-4.3242391943931580e-01</stageThreshold>
      <weakClassifiers>
        <_>
          <internalNodes>
            0 -1 69 -5.9212441556155682e-03</internalNodes>
          <leafValues>
            -6.5517240762710571e-01 5.2301257848739624e-01</leafValues></_>
        <_>
          <internalNodes>
            0 -1 54 -2.3030644282698631e-02</internalNodes>
          <leafValues>
            7.8021383285522461e-01 -2.9928353428840637e-01</leafValues></_>
        <_>
          <internalNodes>
            0 -1 20 1.7789490520954132e-03</internalNodes>
          <leafValues>
            3.7705159187316895e-01 -6.4678412675857544e-01</leafValues></_>
        <_>
          <internalNodes>
            0 -1 68 3.3492366783320904e-03</internalNodes>
          <leafValues>
            2.6925015449523926e-01 -7.8183227777481079e-01</leafValues></_>
        <_>
          <internalNodes>
            0 -1 13 -2.5756123941391706e-03</internalNodes>
          <leafValues>
            -6.8049341440200806e-01 2.8564408421516418e-01</leafValues></_>
        <_>
          <internalNodes>
            0 -1 70 -3.5604443401098251e-03</internalNodes>
          <leafValues>
            -5.6465196609497070e-01 3.6038649082183838e-01</leafValues></_>
        <_>
          <internalNodes>
            0 -1 5 1.1337848380208015e-02</internalNodes>
          <leafValues>
            2.8078216314315796e-01 -7.7232468128204346e-01</leafValues></_></weakClassifiers></_>
    <!-- stage 10 -->
    <_>
      <maxWeakCount>8</maxWeakCount>
      <stageThreshold>-4.2744281888008118e-01</stageThreshold>
      <weakClassifiers>
        <_>
          <internalNodes>
            0 -1 71 2.2690266370773315e-02</internalNodes>
          <leafValues>
            5.7603687047958374e-01 -4.7499999403953552e-01</leafValues></_>
        <_>
          <internalNodes>
            0 -1 64 6.2935082241892815e-03</internalNodes>
          <leafValues>
            -3.1743431091308594e-01 6.2351167201995850e-01</leafValues></_>
        <_>
          <internalNodes>
            0 -1 7 3.0072655063122511e-03</internalNodes>
          <leafValues>
            3.6476147174835205e-01 -6.0055601596832275e-01</leafValues></_>
        <_>
          <internalNodes>
            0 -1 38 -3.4937290474772453e-03</internalNodes>
          <leafValues>
            -6.9595360755920410e-01 2.8271391987800598e-01</leafValues></_>
        <_>
          <internalNodes>
            0 -1 6 3.9595630369149148e-04</internalNodes>
          <leafValues>
            3.6679607629776001e-01 -5.4914879798889160e-01</leafValues></_>
        <_>
          <internalNodes>
            0 -1 33 1.2429160997271538e-02</internalNodes>
          <leafValues>
            -2.3890024423599243e-01 1.</leafValues></_>
        <_>
          <internalNodes>
            0 -1 14 -1.3275515288114548e-02</internalNodes>
          <leafValues>
            -7.2117704153060913e-01 3.2012411952018738e-01</leafValues></_>
        <_>
          <internalNodes>
            0 -1 67 -6.5152370370924473e-03</internalNodes>
          <leafValues>
            -7.3050385713577271e-01 2.5949966907501221e-01</leafValues></_></weakClassifiers></_>
    <!-- stage 11 -->
    <_>
      <maxWeakCount>8</maxWeakCount>
      <stageThreshold>-8.1568217277526855e-01</stageThreshold>
      <weakClassifiers>
        <_>
          <internalNodes>
            0 -1 94 -4.6958876773715019e-03</internalNodes>
          <leafValues>
            -5.8064514398574829e-01 5.2340424060821533e-01</leafValues></_>
        <_>
          <internalNodes>
            0 -1 10 -1.2711827876046300e-03</internalNodes>
          <leafValues>
            -7.0933675765991211e-01 2.6693966984748840e-01</leafValues></_>
        <_>
          <internalNodes>
            0 -1 40 3.0165726318955421e-02</internalNodes>
          <leafValues>
            2.7693754434585571e-01 -7.1428793668746948e-01</leafValues></_>
        <_>
          <internalNodes>
            0 -1 28 -4.7996733337640762e-03</internalNodes>
          <leafValues>
            -7.7860629558563232e-01 2.2382462024688721e-01</leafValues></_>
        <_>
          <internalNodes>
            0 -1 23 1.0883774608373642e-02</internalNodes>
          <leafValues>
            -3.8887715339660645e-01 5.1710534095764160e-01</leafValues></_>
        <_>
          <internalNodes>
            0 -1 72 4.8999739810824394e-03</internalNodes>
          <leafValues>
            2.2529751062393188e-01 -8.3727926015853882e-01</leafValues></_>
        <_>
          <internalNodes>
            0 -1 47 -1.0418096557259560e-02</internalNodes>
          <leafValues>
            -6.4055997133255005e-01 3.2258343696594238e-01</leafValues></_>
        <_>
          <internalNodes>
            0 -1 92 -8.6129968985915184e-04</internalNodes>
          <leafValues>
            7.8951549530029297e-01 -3.1142318248748779e-01</leafValues></_></weakClassifiers></_>
    <!-- stage 12 -->
    <_>
      <maxWeakCount>8</maxWeakCount>
      <stageThreshold>-2.6442688703536987e-01</stageThreshold>
      <weakClassifiers>
        <_>
          <internalNodes>
            0 -1 50 2.2770632058382034e-03</internalNodes>
          <leafValues>
            -1.3698630034923553e-01 7.0860928297042847e-01</leafValues></_>
        <_>
          <internalNodes>
            0 -1 18 -5.3492961451411247e-03</internalNodes>
          <leafValues>
            -5.1861953735351563e-01 3.8601258397102356e-01</leafValues></_>
        <_>
          <internalNodes>
            0 -1 57 9.1452710330486298e-03</internalNodes>
          <leafValues>
            3.1241267919540405e-01 -6.9734573364257813e-01</leafValues></_>
        <_>
          <internalNodes>
            0 -1 21 2.0665224641561508e-02</internalNodes>
          <leafValues>
            2.6049330830574036e-01 -6.9707429409027100e-01</leafValues></_>
        <_>
          <internalNodes>
            0 -1 59 5.3231986239552498e-03</internalNodes>
          <leafValues>
            -2.2004438936710358e-01 9.2677485942840576e-01</leafValues></_>
        <_>
          <internalNodes>
            0 -1 22 2.4388488964177668e-04</internalNodes>
          <leafValues>
            -2.6156231760978699e-01 6.6740339994430542e-01</leafValues></_>
        <_>
          <internalNodes>
            0 -1 25 3.7338487803936005e-02</internalNodes>
          <leafValues>
            3.1180197000503540e-01 -6.9506299495697021e-01</leafValues></_>
        <_>
          <internalNodes>
            0 -1 98 3.1141932122409344e-03</internalNodes>
          <leafValues>
            2.0228254795074463e-01 -8.8386839628219604e-01</leafValues></_></weakClassifiers></_>
    <!-- stage 13 -->
    <_>
      <maxWeakCount>8</maxWeakCount>
      <stageThreshold>-3.6589750647544861e-01</stageThreshold>
      <weakClassifiers>
        <_>
          <internalNodes>
            0 -1 52 5.4522552527487278e-03</internalNodes>
          <leafValues>
            4.4061303138732910e-01 -7.7777779102325439e-01</leafValues></_>
        <_>
          <internalNodes>
            0 -1 45 5.2694184705615044e-03</internalNodes>
          <leafValues>
            -3.3331727981567383e-01 5.2580028772354126e-01</leafValues></_>
        <_>
          <internalNodes>
            0 -1 39 2.6772336568683386e-03</internalNodes>
          <leafValues>
            3.2116016745567322e-01 -5.2898216247558594e-01</leafValues></_>
        <_>
          <internalNodes>
            0 -1 56 5.0394691061228514e-04</internalNodes>
          <leafValues>
            3.4337955713272095e-01 -5.0654846429824829e-01</leafValues></_>
        <_>
          <internalNodes>
            0 -1 87 1.1185214389115572e-03</internalNodes>
          <leafValues>
            -1.9686946272850037e-01 9.3241846561431885e-01</leafValues></_>
        <_>
          <internalNodes>
            0 -1 3 2.7810377068817616e-03</internalNodes>
          <leafValues>
            3.0357259511947632e-01 -6.0861837863922119e-01</leafValues></_>
        <_>
          <internalNodes>
            0 -1 90 -1.1517850682139397e-02</internalNodes>
          <leafValues>
            -8.2455539703369141e-01 2.2763834893703461e-01</leafValues></_>
        <_>
          <internalNodes>
            0 -1 26 1.1884549632668495e-02</internalNodes>
          <leafValues>
            -2.5368368625640869e-01 7.6900553703308105e-01</leafValues></_></weakClassifiers></_>
    <!-- stage 14 -->
    <_>
      <maxWeakCount>9</maxWeakCount>
      <stageThreshold>-4.2277577519416809e-01</stageThreshold>
      <weakClassifiers>
        <_>
          <internalNodes>
            0 -1 46 -2.0436225458979607e-02</internalNodes>
          <leafValues>
            8.1196582317352295e-01 -4.4444445520639420e-02</leafValues></_>
        <_>
          <internalNodes>
            0 -1 63 2.0187362097203732e-03</internalNodes>
          <leafValues>
            -2.2169540822505951e-01 6.5592563152313232e-01</leafValues></_>
        <_>
          <internalNodes>
            0 -1 31 -1.0803190991282463e-02</internalNodes>
          <leafValues>
            -7.8744000196456909e-01 2.3203632235527039e-01</leafValues></_>
        <_>
          <internalNodes>
            0 -1 84 2.7304210234433413e-03</internalNodes>
          <leafValues>
            -2.3458179831504822e-01 8.0270701646804810e-01</leafValues></_>
        <_>
          <internalNodes>
            0 -1 73 -2.0489078015089035e-03</internalNodes>
          <leafValues>
            -5.6293588876724243e-01 3.0436161160469055e-01</leafValues></_>
        <_>
          <internalNodes>
            0 -1 85 4.9746846780180931e-03</internalNodes>
          <leafValues>
            -1.8932162225246429e-01 9.0046334266662598e-01</leafValues></_>
        <_>
          <internalNodes>
            0 -1 75 5.3156472742557526e-02</internalNodes>
          <leafValues>
            2.5165668129920959e-01 -8.7775313854217529e-01</leafValues></_>
        <_>
          <internalNodes>
            0 -1 97 -7.4486387893557549e-03</internalNodes>
          <leafValues>
            -8.0980801582336426e-01 1.8041113018989563e-01</leafValues></_>
        <_>
          <internalNodes>
            0 -1 37 3.2676006667315960e-03</internalNodes>
          <leafValues>
            3.2864570617675781e-01 -5.3913366794586182e-01</leafValues></_></weakClassifiers></_></stages>
  <features>
    <_>
      <rects>
        <_>
          0 4 21 19 -1.</_>
        <_>
          7 4 7 19 3.</_></rects>
      <tilted>0</tilted></_>
    <_>
      <rects>
        <_>
          0 6 6 17 -1.</_>
        <_>
          3 6 3 17 2.</_></rects>
      <tilted>0</tilted></_>
    <_>
      <rects>
        <_>
          0 10 17 14 -1.</_>
        <_>
          0 17 17 7 2.</_></rects>
      <tilted>0</tilted></_>
    <_>
      <rects>
        <_>
          0 11 4 8 -1.</_>
        <_>
          0 11 2 4 2.</_>
        <_>
          2 15 2 4 2.</_></rects>
      <tilted>0</tilted></_>
    <_>
      <rects>
        <_>
          0 13 12 11 -1.</_>
        <_>
          4 13 4 11 3.</_></rects>
      <tilted>0</tilted></_>
    <_>
      <rects>
        <_>
          0 16 15 6 -1.</_>
        <_>
          5 16 5 6 3.</_></rects>
      <tilted>0</tilted></_>
    <_>
      <rects>
        <_>
          0 20 2 4 -1.</_>
        <_>
          1 20 1 4 2.</_></rects>
      <tilted>0</tilted></_>
    <_>
      <rects>
        <_>
          0 23 36 1 -1.</_>
        <_>
          18 23 18 1 2.</_></rects>
      <tilted>0</tilted></_>
    <_>
      <rects>
        <_>
          1 19 27 3 -1.</_>
        <_>
          10 19 9 3 3.</_></rects>
      <tilted>0</tilted></_>
    <_>
      <rects>
        <_>
          1 23 18 1 -1.</_>
        <_>
          10 23 9 1 2.</_></rects>
      <tilted>0</tilted></_>
    <_>
      <rects>
        <_>
          2 1 6 1 -1.</_>
        <_>
          5 1 3 1 2.</_></rects>
      <tilted>0</tilted></_>
    <_>
      <rects>
        <_>
          2 4 10 9 -1.</_>
        <_>
          7 4 5 9 2.</_></rects>
      <tilted>0</tilted></_>
    <_>
      <rects>
        <_>
          2 14 4 3 -1.</_>
        <_>
          4 14 2 3 2.</_></rects>
      <tilted>0</tilted></_>
    <_>
      <rects>
        <_>
          3 0 4 8 -1.</_>
        <_>
          3 0 2 4 2.</_>
        <_>
          5 4 2 4 2.</_></rects>
      <tilted>0</tilted></_>
    <_>
      <rects>
        <_>
          3 12 9 10 -1.</_>
        <_>
          6 12 3 10 3.</_></rects>
      <tilted>0</tilted></_>
    <_>
      <rects>
        <_>
          3 18 6 6 -1.</_>
        <_>
          5 18 2 6 3.</_></rects>
      <tilted>0</tilted></_>
    <_>
      <rects>
        <_>
          3 19 12 5 -1.</_>
        <_>
          9 19 6 5 2.</_></rects>
      <tilted>0</tilted></_>
    <_>
      <rects>
        <_>
          3 22 18 2 -1.</_>
        <_>
          12 22 9 2 2.</_></rects>
      <tilted>0</tilted></_>
    <_>
      <rects>
        <_>
          3 23 30 1 -1.</_>
        <_>
          13 23 10 1 3.</_></rects>
      <tilted>0</tilted></_>
    <_>
      <rects>
        <_>
          4 4 8 20 -1.</_>
        <_>
          8 4 4 20 2.</_></rects>
      <tilted>0</tilted></_>
    <_>
      <rects>
        <_>
          5 0 6 2 -1.</_>
        <_>
          8 0 3 2 2.</_></rects>
      <tilted>0</tilted></_>
    <_>
      <rects>
        <_>
          5 0 17 12 -1.</_>
        <_>
          5 6 17 6 2.</_></rects>
      <tilted>0</tilted></_>
    <_>
      <rects>
        <_>
          5 9 2 2 -1.</_>
        <_>
          5 9 1 1 2.</_>
        <_>
          6 10 1 1 2.</_></rects>
      <tilted>0</tilted></_>
    <_>
      <rects>
        <_>
          5 11 11 12 -1.</_>
        <_>
          5 15 11 4 3.</_></rects>
      <tilted>0</tilted></_>
    <_>
      <rects>
        <_>
          6 1 8 8 -1.</_>
        <_>
          10 1 4 8 2.</_></rects>
      <tilted>0</tilted></_>
    <_>
      <rects>
        <_>
          6 1 18 13 -1.</_>
        <_>
          12 1 6 13 3.</_></rects>
      <tilted>0</tilted></_>
    <_>
      <rects>
        <_>
          6 8 4 9 -1.</_>
        <_>
          6 11 4 3 3.</_></rects>
      <tilted>0</tilted></_>
    <_>
      <rects>
        <_>
          6 8 30 16 -1.</_>
        <_>
          16 8 10 16 3.</_></rects>
      <tilted>0</tilted></_>
    <_>
      <rects>
        <_>
          6 19 6 5 -1.</_>
        <_>
          8 19 2 5 3.</_></rects>
      <tilted>0</tilted></_>
    <_>
      <rects>
        <_>
          7 12 15 10 -1.</_>
        <_>
          12 12 5 10 3.</_></rects>
      <tilted>0</tilted></_>
    <_>
      <rects>
        <_>
          8 13 6 7 -1.</_>
        <_>
          10 13 2 7 3.</_></rects>
      <tilted>0</tilted></_>
    <_>
      <rects>
        <_>
          8 17 9 6 -1.</_>
        <_>
          11 17 3 6 3.</_></rects>
      <tilted>0</tilted></_>
    <_>
      <rects>
        <_>
          11 1 6 12 -1.</_>
        <_>
          11 1 3 6 2.</_>
        <_>
          14 7 3 6 2.</_></rects>
      <tilted>0</tilted></_>
    <_>
      <rects>
        <_>
          11 15 21 3 -1.</_>
        <_>
          11 16 21 1 3.</_></rects>
      <tilted>0</tilted></_>
    <_>
      <rects>
        <_>
          12 3 10 6 -1.</_>
        <_>
          12 3 5 3 2.</_>
        <_>
          17 6 5 3 2.</_></rects>
      <tilted>0</tilted></_>
    <_>
      <rects>
        <_>
          12 4 21 7 -1.</_>
        <_>
          19 4 7 7 3.</_></rects>
      <tilted>0</tilted></_>
    <_>
      <rects>
        <_>
          12 8 18 2 -1.</_>
        <_>
          18 8 6 2 3.</_></rects>
      <tilted>0</tilted></_>
    <_>
      <rects>
        <_>
          12 21 9 3 -1.</_>
        <_>
          15 21 3 3 3.</_></rects>
      <tilted>0</tilted></_>
    <_>
      <rects>
        <_>
          13 2 9 3 -1.</_>
        <_>
          16 2 3 3 3.</_></rects>
      <tilted>0</tilted></_>
    <_>
      <rects>
        <_>
          13 3 8 2 -1.</_>
        <_>
          17 3 4 2 2.</_></rects>
      <tilted>0</tilted></_>
    <_>
      <rects>
        <_>
          13 6 12 18 -1.</_>
        <_>
          17 6 4 18 3.</_></rects>
      <tilted>0</tilted></_>
    <_>
      <rects>
        <_>
          13 9 12 4 -1.</_>
        <_>
          17 9 4 4 3.</_></rects>
      <tilted>0</tilted></_>
    <_>
      <rects>
        <_>
          14 0 15 10 -1.</_>
        <_>
          19 0 5 10 3.</_></rects>
      <tilted>0</tilted></_>
    <_>
      <rects>
        <_>
          14 0 16 2 -1.</_>
        <_>
          14 1 16 1 2.</_></rects>
      <tilted>0</tilted></_>
    <_>
      <rects>
        <_>
          14 2 11 18 -1.</_>
        <_>
          14 11 11 9 2.</_></rects>
      <tilted>0</tilted></_>
    <_>
      <rects>
        <_>
          14 6 2 9 -1.</_>
        <_>
          14 9 2 3 3.</_></rects>
      <tilted>0</tilted></_>
    <_>
      <rects>
        <_>
          14 6 2 15 -1.</_>
        <_>
          14 11 2 5 3.</_></rects>
      <tilted>0</tilted></_>
    <_>
      <rects>
        <_>
          14 6 18 6 -1.</_>
        <_>
          20 6 6 6 3.</_></rects>
      <tilted>0</tilted></_>
    <_>
      <rects>
        <_>
          14 10 4 9 -1.</_>
        <_>
          14 13 4 3 3.</_></rects>
      <tilted>0</tilted></_>
    <_>
      <rects>
        <_>
          14 12 5 2 -1.</_>
        <_>
          14 13 5 1 2.</_></rects>
      <tilted>0</tilted></_>
    <_>
      <rects>
        <_>
          14 12 10 2 -1.</_>
        <_>
          14 12 5 1 2.</_>
        <_>
          19 13 5 1 2.</_></rects>
      <tilted>0</tilted></_>
    <_>
      <rects>
        <_>
          14 14 8 9 -1.</_>
        <_>
          18 14 4 9 2.</_></rects>
      <tilted>0</tilted></_>
    <_>
      <rects>
        <_>
          15 1 18 1 -1.</_>
        <_>
          21 1 6 1 3.</_></rects>
      <tilted>0</tilted></_>
    <_>
      <rects>
        <_>
          15 2 21 22 -1.</_>
        <_>
          15 13 21 11 2.</_></rects>
      <tilted>0</tilted></_>
    <_>
      <rects>
        <_>
          15 9 2 12 -1.</_>
        <_>
          15 13 2 4 3.</_></rects>
      <tilted>0</tilted></_>
    <_>
      <rects>
        <_>
          15 12 6 2 -1.</_>
        <_>
          15 12 3 1 2.</_>
        <_>
          18 13 3 1 2.</_></rects>
      <tilted>0</tilted></_>
    <_>
      <rects>
        <_>
          15 19 5 3 -1.</_>
        <_>
          15 20 5 1 3.</_></rects>
      <tilted>0</tilted></_>
    <_>
      <rects>
        <_>
          16 8 15 5 -1.</_>
        <_>
          21 8 5 5 3.</_></rects>
      <tilted>0</tilted></_>
    <_>
      <rects>
        <_>
          16 9 1 6 -1.</_>
        <_>
          16 11 1 2 3.</_></rects>
      <tilted>0</tilted></_>
    <_>
      <rects>
        <_>
          16 12 13 3 -1.</_>
        <_>
          16 13 13 1 3.</_></rects>
      <tilted>0</tilted></_>
    <_>
      <rects>
        <_>
          16 13 3 2 -1.</_>
        <_>
          16 14 3 1 2.</_></rects>
      <tilted>0</tilted></_>
    <_>
      <rects>
        <_>
          17 4 8 10 -1.</_>
        <_>
          21 4 4 10 2.</_></rects>
      <tilted>0</tilted></_>
    <_>
      <rects>
        <_>
          17 4 18 11 -1.</_>
        <_>
          23 4 6 11 3.</_></rects>
      <tilted>0</tilted></_>
    <_>
      <rects>
        <_>
          17 10 1 6 -1.</_>
        <_>
          17 12 1 2 3.</_></rects>
      <tilted>0</tilted></_>
    <_>
      <rects>
        <_>
          17 10 4 6 -1.</_>
        <_>
          17 12 4 2 3.</_></rects>
      <tilted>0</tilted></_>
    <_>
      <rects>
        <_>
          17 13 2 2 -1.</_>
        <_>
          17 14 2 1 2.</_></rects>
      <tilted>0</tilted></_>
    <_>
      <rects>
        <_>
          18 0 9 13 -1.</_>
        <_>
          21 0 3 13 3.</_></rects>
      <tilted>0</tilted></_>
    <_>
      <rects>
        <_>
          18 6 6 8 -1.</_>
        <_>
          21 6 3 8 2.</_></rects>
      <tilted>0</tilted></_>
    <_>
      <rects>
        <_>
          18 9 6 4 -1.</_>
        <_>
          21 9 3 4 2.</_></rects>
      <tilted>0</tilted></_>
    <_>
      <rects>
        <_>
          19 0 6 10 -1.</_>
        <_>
          21 0 2 10 3.</_></rects>
      <tilted>0</tilted></_>
    <_>
      <rects>
        <_>
          19 0 15 2 -1.</_>
        <_>
          24 0 5 2 3.</_></rects>
      <tilted>0</tilted></_>
    <_>
      <rects>
        <_>
          19 1 14 13 -1.</_>
        <_>
          26 1 7 13 2.</_></rects>
      <tilted>0</tilted></_>
    <_>
      <rects>
        <_>
          19 3 6 6 -1.</_>
        <_>
          21 3 2 6 3.</_></rects>
      <tilted>0</tilted></_>
    <_>
      <rects>
        <_>
          19 5 10 2 -1.</_>
        <_>
          24 5 5 2 2.</_></rects>
      <tilted>0</tilted></_>
    <_>
      <rects>
        <_>
          20 10 12 3 -1.</_>
        <_>
          24 10 4 3 3.</_></rects>
      <tilted>0</tilted></_>
    <_>
      <rects>
        <_>
          21 3 15 21 -1.</_>
        <_>
          26 3 5 21 3.</_></rects>
      <tilted>0</tilted></_>
    <_>
      <rects>
        <_>
          22 1 6 9 -1.</_>
        <_>
          24 1 2 9 3.</_></rects>
      <tilted>0</tilted></_>
    <_>
      <rects>
        <_>
          23 0 8 10 -1.</_>
        <_>
          27 0 4 10 2.</_></rects>
      <tilted>0</tilted></_>
    <_>
      <rects>
        <_>
          23 7 9 2 -1.</_>
        <_>
          26 7 3 2 3.</_></rects>
      <tilted>0</tilted></_>
    <_>
      <rects>
        <_>
          24 7 8 10 -1.</_>
        <_>
          28 7 4 10 2.</_></rects>
      <tilted>0</tilted></_>
    <_>
      <rects>
        <_>
          24 11 9 3 -1.</_>
        <_>
          27 11 3 3 3.</_></rects>
      <tilted>0</tilted></_>
    <_>
      <rects>
        <_>
          24 12 6 11 -1.</_>
        <_>
          26 12 2 11 3.</_></rects>
      <tilted>0</tilted></_>
    <_>
      <rects>
        <_>
          25 4 9 20 -1.</_>
        <_>
          28 4 3 20 3.</_></rects>
      <tilted>0</tilted></_>
    <_>
      <rects>
        <_>
          25 14 9 7 -1.</_>
        <_>
          28 14 3 7 3.</_></rects>
      <tilted>0</tilted></_>
    <_>
      <rects>
        <_>
          25 15 5 3 -1.</_>
        <_>
          25 16 5 1 3.</_></rects>
      <tilted>0</tilted></_>
    <_>
      <rects>
        <_>
          25 16 2 6 -1.</_>
        <_>
          25 18 2 2 3.</_></rects>
      <tilted>0</tilted></_>
    <_>
      <rects>
        <_>
          26 0 4 5 -1.</_>
        <_>
          28 0 2 5 2.</_></rects>
      <tilted>0</tilted></_>
    <_>
      <rects>
        <_>
          26 19 1 3 -1.</_>
        <_>
          26 20 1 1 3.</_></rects>
      <tilted>0</tilted></_>
    <_>
      <rects>
        <_>
          27 0 9 2 -1.</_>
        <_>
          30 0 3 2 3.</_></rects>
      <tilted>0</tilted></_>
    <_>
      <rects>
        <_>
          27 1 8 2 -1.</_>
        <_>
          31 1 4 2 2.</_></rects>
      <tilted>0</tilted></_>
    <_>
      <rects>
        <_>
          28 0 6 24 -1.</_>
        <_>
          30 0 2 24 3.</_></rects>
      <tilted>0</tilted></_>
    <_>
      <rects>
        <_>
          28 9 6 3 -1.</_>
        <_>
          31 9 3 3 2.</_></rects>
      <tilted>0</tilted></_>
    <_>
      <rects>
        <_>
          28 13 4 2 -1.</_>
        <_>
          28 13 2 1 2.</_>
        <_>
          30 14 2 1 2.</_></rects>
      <tilted>0</tilted></_>
    <_>
      <rects>
        <_>
          28 17 6 4 -1.</_>
        <_>
          30 17 2 4 3.</_></rects>
      <tilted>0</tilted></_>
    <_>
      <rects>
        <_>
          29 0 4 14 -1.</_>
        <_>
          29 0 2 7 2.</_>
        <_>
          31 7 2 7 2.</_></rects>
      <tilted>0</tilted></_>
    <_>
      <rects>
        <_>
          29 2 2 4 -1.</_>
        <_>
          29 4 2 2 2.</_></rects>
      <tilted>0</tilted></_>
    <_>
      <rects>
        <_>
          30 1 6 3 -1.</_>
        <_>
          33 1 3 3 2.</_></rects>
      <tilted>0</tilted></_>
    <_>
      <rects>
        <_>
          30 11 6 11 -1.</_>
        <_>
          32 11 2 11 3.</_></rects>
      <tilted>0</tilted></_>
    <_>
      <rects>
        <_>
          31 6 2 13 -1.</_>
        <_>
          32 6 1 13 2.</_></rects>
      <tilted>0</tilted></_>
    <_>
      <rects>
        <_>
          32 1 4 2 -1.</_>
        <_>
          34 1 2 2 2.</_></rects>
      <tilted>0</tilted></_></features></cascade>
</opencv_storage>
