<?xml version="1.0"?>
<opencv_storage>
<cascade>
  <stageType>BOOST</stageType>
  <featureType>HAAR</featureType>
  <height>24</height>
  <width>36</width>
  <stageParams>
    <boostType>GAB</boostType>
    <minHitRate>9.9500000476837158e-01</minHitRate>
    <maxFalseAlarm>5.0000000000000000e-01</maxFalseAlarm>
    <weightTrimRate>9.4999998807907104e-01</weightTrimRate>
    <maxDepth>1</maxDepth>
    <maxWeakCount>100</maxWeakCount></stageParams>
  <featureParams>
    <maxCatCount>0</maxCatCount>
    <featSize>1</featSize>
    <mode>BASIC</mode></featureParams>
  <stageNum>15</stageNum>
  <stages>
    <!-- stage 0 -->
    <_>
      <maxWeakCount>2</maxWeakCount>
      <stageThreshold>-6.2790609896183014e-02</stageThreshold>
      <weakClassifiers>
        <_>
          <internalNodes>
            0 -1 15 3.1958162784576416e-02</internalNodes>
          <leafValues>
            -4.6875000000000000e-01 8.3333331346511841e-01</leafValues></_>
        <_>
          <internalNodes>
            0 -1 28 7.0881191641092300e-04</internalNodes>
          <leafValues>
            5.2519774436950684e-01 -8.9612394571304321e-01</leafValues></_></weakClassifiers></_>
    <!-- stage 1 -->
    <_>
      <maxWeakCount>2</maxWeakCount>
      <stageThreshold>-1.3396032154560089e-01</stageThreshold>
      <weakClassifiers>
        <_>
          <internalNodes>
            0 -1 6 -1.6107644885778427e-02</internalNodes>
          <leafValues>
            8.2857143878936768e-01 -4.4615384936332703e-01</leafValues></_>
        <_>
          <internalNodes>
            0 -1 33 1.5675364062190056e-02</internalNodes>
          <leafValues>
            4.9472978711128235e-01 -9.6253174543380737e-01</leafValues></_></weakClassifiers></_>
    <!-- stage 2 -->
    <_>
      <maxWeakCount>2</maxWeakCount>
      <stageThreshold>-1.7739024758338928e-01</stageThreshold>
      <weakClassifiers>
        <_>
          <internalNodes>
            0 -1 21 -1.6853734850883484e-03</internalNodes>
          <leafValues>
            -9.4285714626312256e-01 5.0769233703613281e-01</leafValues></_>
        <_>
          <internalNodes>
            0 -1 22 1.9133219029754400e-03</internalNodes>
          <leafValues>
            -6.4779722690582275e-01 7.6546686887741089e-01</leafValues></_></weakClassifiers></_>
    <!-- stage 3 -->
    <_>
      <maxWeakCount>1</maxWeakCount>
      <stageThreshold>3.5135135054588318e-01</stageThreshold>
      <weakClassifiers>
        <_>
          <internalNodes>
            0 -1 3 1.8632095307111740e-02</internalNodes>
          <leafValues>
            3.5135135054588318e-01 -1.</leafValues></_></weakClassifiers></_>
    <!-- stage 4 -->
    <_>
      <maxWeakCount>2</maxWeakCount>
      <stageThreshold>-1.8944106996059418e-02</stageThreshold>
      <weakClassifiers>
        <_>
          <internalNodes>
            0 -1 0 -5.3621917031705379e-03</internalNodes>
          <leafValues>
            -7.8947371244430542e-01 4.8387095332145691e-01</leafValues></_>
        <_>
          <internalNodes>
            0 -1 27 -6.8944850936532021e-03</internalNodes>
          <leafValues>
            8.2857769727706909e-01 -5.0281506776809692e-01</leafValues></_></weakClassifiers></_>
    <!-- stage 5 -->
    <_>
      <maxWeakCount>3</maxWeakCount>
      <stageThreshold>9.0947978198528290e-02</stageThreshold>
      <weakClassifiers>
        <_>
          <internalNodes>
            0 -1 20 -1.9822761416435242e-02</internalNodes>
          <leafValues>
            5.1724135875701904e-01 -7.1428573131561279e-01</leafValues></_>
        <_>
          <internalNodes>
            0 -1 29 -1.6240065451711416e-03</internalNodes>
          <leafValues>
            -7.4252039194107056e-01 4.5463940501213074e-01</leafValues></_>
        <_>
          <internalNodes>
            0 -1 36 -4.3369373306632042e-03</internalNodes>
          <leafValues>
            -1. 3.5059428215026855e-01</leafValues></_></weakClassifiers></_>
    <!-- stage 6 -->
    <_>
      <maxWeakCount>3</maxWeakCount>
      <stageThreshold>6.9548003375530243e-02</stageThreshold>
      <weakClassifiers>
        <_>
          <internalNodes>
            0 -1 17 1.0160533711314201e-02</internalNodes>
          <leafValues>
            4.5454546809196472e-01 -8.8235294818878174e-01</leafValues></_>
        <_>
          <internalNodes>
            0 -1 8 -1.4983560889959335e-02</internalNodes>
          <leafValues>
            -8.7546676397323608e-01 4.4201114773750305e-01</leafValues></_>
        <_>
          <internalNodes>
            0 -1 38 1.5239313943311572e-03</internalNodes>
          <leafValues>
            5.0988978147506714e-01 -8.2673972845077515e-01</leafValues></_></weakClassifiers></_>
    <!-- stage 7 -->
    <_>
      <maxWeakCount>3</maxWeakCount>
      <stageThreshold>-2.6226651668548584e-01</stageThreshold>
      <weakClassifiers>
        <_>
          <internalNodes>
            0 -1 26 2.4144523777067661e-03</internalNodes>
          <leafValues>
            -3.4246575832366943e-01 9.2592591047286987e-01</leafValues></_>
        <_>
          <internalNodes>
            0 -1 5 -2.4544835090637207e-02</internalNodes>
          <leafValues>
            9.5398336648941040e-01 -4.4803696870803833e-01</leafValues></_>
        <_>
          <internalNodes>
            0 -1 35 5.5144382640719414e-03</internalNodes>
          <leafValues>
            5.5606597661972046e-01 -7.4015545845031738e-01</leafValues></_></weakClassifiers></_>
    <!-- stage 8 -->
    <_>
      <maxWeakCount>3</maxWeakCount>
      <stageThreshold>3.9430163800716400e-02</stageThreshold>
      <weakClassifiers>
        <_>
          <internalNodes>
            0 -1 32 -3.7673986516892910e-03</internalNodes>
          <leafValues>
            -8.8235294818878174e-01 4.5454546809196472e-01</leafValues></_>
        <_>
          <internalNodes>
            0 -1 25 1.3257914688438177e-03</internalNodes>
          <leafValues>
            4.1330525279045105e-01 -7.9809385538101196e-01</leafValues></_>
        <_>
          <internalNodes>
            0 -1 37 -8.2810167223215103e-03</internalNodes>
          <leafValues>
            -8.2842051982879639e-01 5.4477214813232422e-01</leafValues></_></weakClassifiers></_>
    <!-- stage 9 -->
    <_>
      <maxWeakCount>3</maxWeakCount>
      <stageThreshold>3.7556579709053040e-01</stageThreshold>
      <weakClassifiers>
        <_>
          <internalNodes>
            0 -1 13 -3.1257893890142441e-02</internalNodes>
          <leafValues>
            -9.2592591047286987e-01 3.4246575832366943e-01</leafValues></_>
        <_>
          <internalNodes>
            0 -1 14 -8.3497364539653063e-04</internalNodes>
          <leafValues>
            -6.9778603315353394e-01 4.4362244009971619e-01</leafValues></_>
        <_>
          <internalNodes>
            0 -1 30 2.1843605209141970e-03</internalNodes>
          <leafValues>
            -4.1052237153053284e-01 9.2698955535888672e-01</leafValues></_></weakClassifiers></_>
    <!-- stage 10 -->
    <_>
      <maxWeakCount>3</maxWeakCount>
      <stageThreshold>-9.2035241425037384e-02</stageThreshold>
      <weakClassifiers>
        <_>
          <internalNodes>
            0 -1 39 -7.1302400901913643e-03</internalNodes>
          <leafValues>
            -8.1250000000000000e-01 3.8235294818878174e-01</leafValues></_>
        <_>
          <internalNodes>
            0 -1 24 -1.6129298601299524e-03</internalNodes>
          <leafValues>
            -8.9020895957946777e-01 3.0033475160598755e-01</leafValues></_>
        <_>
          <internalNodes>
            0 -1 12 -6.4035761170089245e-03</internalNodes>
          <leafValues>
            -7.7472293376922607e-01 4.3057540059089661e-01</leafValues></_></weakClassifiers></_>
    <!-- stage 11 -->
    <_>
      <maxWeakCount>3</maxWeakCount>
      <stageThreshold>1.0355626046657562e-01</stageThreshold>
      <weakClassifiers>
        <_>
          <internalNodes>
            0 -1 34 -4.8702443018555641e-03</internalNodes>
          <leafValues>
            -8.1250000000000000e-01 3.8235294818878174e-01</leafValues></_>
        <_>
          <internalNodes>
            0 -1 11 7.8197184484452009e-04</internalNodes>
          <leafValues>
            4.1642597317695618e-01 -8.2676017284393311e-01</leafValues></_>
        <_>
          <internalNodes>
            0 -1 10 4.9866200424730778e-04</internalNodes>
          <leafValues>
            -6.9522267580032349e-01 6.5185803174972534e-01</leafValues></_></weakClassifiers></_>
    <!-- stage 12 -->
    <_>
      <maxWeakCount>4</maxWeakCount>
      <stageThreshold>-6.4594373106956482e-02</stageThreshold>
      <weakClassifiers>
        <_>
          <internalNodes>
            0 -1 40 -1.4671408571302891e-03</internalNodes>
          <leafValues>
            -6.3636362552642822e-01 5.0000000000000000e-01</leafValues></_>
        <_>
          <internalNodes>
            0 -1 9 -3.0487715266644955e-03</internalNodes>
          <leafValues>
            -8.0239713191986084e-01 4.4370985031127930e-01</leafValues></_>
        <_>
          <internalNodes>
            0 -1 16 2.2342833108268678e-04</internalNodes>
          <leafValues>
            -5.6250280141830444e-01 7.8240883350372314e-01</leafValues></_>
        <_>
          <internalNodes>
            0 -1 19 4.4716661795973778e-04</internalNodes>
          <leafValues>
            -4.4580140709877014e-01 8.5762768983840942e-01</leafValues></_></weakClassifiers></_>
    <!-- stage 13 -->
    <_>
      <maxWeakCount>3</maxWeakCount>
      <stageThreshold>-7.7631339430809021e-02</stageThreshold>
      <weakClassifiers>
        <_>
          <internalNodes>
            0 -1 1 -1.9900542683899403e-03</internalNodes>
          <leafValues>
            -7.6470589637756348e-01 3.9393940567970276e-01</leafValues></_>
        <_>
          <internalNodes>
            0 -1 7 4.6373246004804969e-04</internalNodes>
          <leafValues>
            4.0308299660682678e-01 -8.2375550270080566e-01</leafValues></_>
        <_>
          <internalNodes>
            0 -1 2 6.0012666508555412e-03</internalNodes>
          <leafValues>
            3.6547610163688660e-01 -8.7465375661849976e-01</leafValues></_></weakClassifiers></_>
    <!-- stage 14 -->
    <_>
      <maxWeakCount>4</maxWeakCount>
      <stageThreshold>-2.9500174522399902e-01</stageThreshold>
      <weakClassifiers>
        <_>
          <internalNodes>
            0 -1 18 4.2013441998278722e-05</internalNodes>
          <leafValues>
            -5.2727270126342773e-01 6.4444446563720703e-01</leafValues></_>
        <_>
          <internalNodes>
            0 -1 4 2.3362785577774048e-02</internalNodes>
          <leafValues>
            5.0585544109344482e-01 -7.8750091791152954e-01</leafValues></_>
        <_>
          <internalNodes>
            0 -1 23 3.3864111173897982e-03</internalNodes>
          <leafValues>
            -7.2727262973785400e-01 6.0852074623107910e-01</leafValues></_>
        <_>
          <internalNodes>
            0 -1 31 -1.3145529665052891e-03</internalNodes>
          <leafValues>
            -7.1802896261215210e-01 6.2018883228302002e-01</leafValues></_></weakClassifiers></_></stages>
  <features>
    <_>
      <rects>
        <_>
          0 15 3 8 -1.</_>
        <_>
          0 19 3 4 2.</_></rects>
      <tilted>0</tilted></_>
    <_>
      <rects>
        <_>
          0 22 12 1 -1.</_>
        <_>
          4 22 4 1 3.</_></rects>
      <tilted>0</tilted></_>
    <_>
      <rects>
        <_>
          1 3 10 2 -1.</_>
        <_>
          6 3 5 2 2.</_></rects>
      <tilted>0</tilted></_>
    <_>
      <rects>
        <_>
          1 11 12 8 -1.</_>
        <_>
          5 11 4 8 3.</_></rects>
      <tilted>0</tilted></_>
    <_>
      <rects>
        <_>
          2 17 22 5 -1.</_>
        <_>
          13 17 11 5 2.</_></rects>
      <tilted>0</tilted></_>
    <_>
      <rects>
        <_>
          3 12 21 2 -1.</_>
        <_>
          10 12 7 2 3.</_></rects>
      <tilted>0</tilted></_>
    <_>
      <rects>
        <_>
          3 14 18 2 -1.</_>
        <_>
          12 14 9 2 2.</_></rects>
      <tilted>0</tilted></_>
    <_>
      <rects>
        <_>
          3 22 6 1 -1.</_>
        <_>
          5 22 2 1 3.</_></rects>
      <tilted>0</tilted></_>
    <_>
      <rects>
        <_>
          4 3 9 20 -1.</_>
        <_>
          7 3 3 20 3.</_></rects>
      <tilted>0</tilted></_>
    <_>
      <rects>
        <_>
          6 1 6 12 -1.</_>
        <_>
          8 1 2 12 3.</_></rects>
      <tilted>0</tilted></_>
    <_>
      <rects>
        <_>
          6 11 22 3 -1.</_>
        <_>
          6 12 22 1 3.</_></rects>
      <tilted>0</tilted></_>
    <_>
      <rects>
        <_>
          8 12 2 5 -1.</_>
        <_>
          9 12 1 5 2.</_></rects>
      <tilted>0</tilted></_>
    <_>
      <rects>
        <_>
          9 2 6 10 -1.</_>
        <_>
          9 2 3 5 2.</_>
        <_>
          12 7 3 5 2.</_></rects>
      <tilted>0</tilted></_>
    <_>
      <rects>
        <_>
          9 10 14 14 -1.</_>
        <_>
          9 17 14 7 2.</_></rects>
      <tilted>0</tilted></_>
    <_>
      <rects>
        <_>
          11 13 5 2 -1.</_>
        <_>
          11 14 5 1 2.</_></rects>
      <tilted>0</tilted></_>
    <_>
      <rects>
        <_>
          13 11 9 12 -1.</_>
        <_>
          13 17 9 6 2.</_></rects>
      <tilted>0</tilted></_>
    <_>
      <rects>
        <_>
          13 13 2 2 -1.</_>
        <_>
          13 13 1 1 2.</_>
        <_>
          14 14 1 1 2.</_></rects>
      <tilted>0</tilted></_>
    <_>
      <rects>
        <_>
          14 0 3 22 -1.</_>
        <_>
          14 11 3 11 2.</_></rects>
      <tilted>0</tilted></_>
    <_>
      <rects>
        <_>
          14 13 1 3 -1.</_>
        <_>
          14 14 1 1 3.</_></rects>
      <tilted>0</tilted></_>
    <_>
      <rects>
        <_>
          14 17 6 1 -1.</_>
        <_>
          16 17 2 1 3.</_></rects>
      <tilted>0</tilted></_>
    <_>
      <rects>
        <_>
          15 0 11 18 -1.</_>
        <_>
          15 9 11 9 2.</_></rects>
      <tilted>0</tilted></_>
    <_>
      <rects>
        <_>
          15 7 5 9 -1.</_>
        <_>
          15 10 5 3 3.</_></rects>
      <tilted>0</tilted></_>
    <_>
      <rects>
        <_>
          15 12 12 2 -1.</_>
        <_>
          15 12 6 1 2.</_>
        <_>
          21 13 6 1 2.</_></rects>
      <tilted>0</tilted></_>
    <_>
      <rects>
        <_>
          16 9 4 6 -1.</_>
        <_>
          16 11 4 2 3.</_></rects>
      <tilted>0</tilted></_>
    <_>
      <rects>
        <_>
          17 3 3 11 -1.</_>
        <_>
          18 3 1 11 3.</_></rects>
      <tilted>0</tilted></_>
    <_>
      <rects>
        <_>
          18 0 2 13 -1.</_>
        <_>
          19 0 1 13 2.</_></rects>
      <tilted>0</tilted></_>
    <_>
      <rects>
        <_>
          18 13 4 2 -1.</_>
        <_>
          18 13 2 1 2.</_>
        <_>
          20 14 2 1 2.</_></rects>
      <tilted>0</tilted></_>
    <_>
      <rects>
        <_>
          19 10 1 9 -1.</_>
        <_>
          19 13 1 3 3.</_></rects>
      <tilted>0</tilted></_>
    <_>
      <rects>
        <_>
          20 7 1 8 -1.</_>
        <_>
          20 11 1 4 2.</_></rects>
      <tilted>0</tilted></_>
    <_>
      <rects>
        <_>
          21 6 14 1 -1.</_>
        <_>
          28 6 7 1 2.</_></rects>
      <tilted>0</tilted></_>
    <_>
      <rects>
        <_>
          22 12 4 3 -1.</_>
        <_>
          22 13 4 1 3.</_></rects>
      <tilted>0</tilted></_>
    <_>
      <rects>
        <_>
          26 11 8 4 -1.</_>
        <_>
          26 11 4 2 2.</_>
        <_>
          30 13 4 2 2.</_></rects>
      <tilted>0</tilted></_>
    <_>
      <rects>
        <_>
          26 14 3 10 -1.</_>
        <_>
          26 19 3 5 2.</_></rects>
      <tilted>0</tilted></_>
    <_>
      <rects>
        <_>
          27 11 9 12 -1.</_>
        <_>
          30 11 3 12 3.</_></rects>
      <tilted>0</tilted></_>
    <_>
      <rects>
        <_>
          28 9 6 5 -1.</_>
        <_>
          31 9 3 5 2.</_></rects>
      <tilted>0</tilted></_>
    <_>
      <rects>
        <_>
          30 0 4 20 -1.</_>
        <_>
          32 0 2 20 2.</_></rects>
      <tilted>0</tilted></_>
    <_>
      <rects>
        <_>
          30 2 6 3 -1.</_>
        <_>
          33 2 3 3 2.</_></rects>
      <tilted>0</tilted></_>
    <_>
      <rects>
        <_>
          30 7 6 12 -1.</_>
        <_>
          32 7 2 12 3.</_></rects>
      <tilted>0</tilted></_>
    <_>
      <rects>
        <_>
          32 0 4 2 -1.</_>
        <_>
          34 0 2 2 2.</_></rects>
      <tilted>0</tilted></_>
    <_>
      <rects>
        <_>
          32 0 3 18 -1.</_>
        <_>
          32 6 3 6 3.</_></rects>
      <tilted>0</tilted></_>
    <_>
      <rects>
        <_>
          32 3 4 8 -1.</_>
        <_>
          32 3 2 4 2.</_>
        <_>
          34 7 2 4 2.</_></rects>
      <tilted>0</tilted></_></features></cascade>
</opencv_storage>
